digraph Tree {
node [shape=box] ;
0 [label="X[9] <= 3.46\ngini = 0.658\nsamples = 133\nvalue = [44, 53, 36]"] ;
1 [label="gini = 0.0\nsamples = 43\nvalue = [0, 43, 0]"] ;
0 -> 1 [labeldistance=2.5, labelangle=45, headlabel="True"] ;
2 [label="X[6] <= 1.58\ngini = 0.589\nsamples = 90\nvalue = [44, 10, 36]"] ;
0 -> 2 [labeldistance=2.5, labelangle=-45, headlabel="False"] ;
3 [label="X[10] <= 0.97\ngini = 0.1\nsamples = 38\nvalue = [0, 2, 36]"] ;
2 -> 3 ;
4 [label="gini = 0.0\nsamples = 36\nvalue = [0, 0, 36]"] ;
3 -> 4 ;
5 [label="gini = 0.0\nsamples = 2\nvalue = [0, 2, 0]"] ;
3 -> 5 ;
6 [label="X[4] <= 88.5\ngini = 0.26\nsamples = 52\nvalue = [44, 8, 0]"] ;
2 -> 6 ;
7 [label="gini = 0.0\nsamples = 6\nvalue = [0, 6, 0]"] ;
6 -> 7 ;
8 [label="X[0] <= 12.61\ngini = 0.083\nsamples = 46\nvalue = [44, 2, 0]"] ;
6 -> 8 ;
9 [label="gini = 0.0\nsamples = 2\nvalue = [0, 2, 0]"] ;
8 -> 9 ;
10 [label="gini = 0.0\nsamples = 44\nvalue = [44, 0, 0]"] ;
8 -> 10 ;
}